0.061411115406612725 0.035096220853818506 
0.01622649168979429 -0.039608774393738055 
0.02170357172989603 0.0719695961075533 
-0.03785982335809324 0.012948490945508595 
0.05408257080226775 0.04071341987562458 
0.031708337131972276 0.03598690519144502 
-0.010039418227606752 -0.014963084621184631 
0.04596665948951699 0.04945493561031568 
0.05325022024755925 0.06239171874509699 
0.00896109292246366 0.01097924854487907 
0.044345802175859136 0.02942528650311916 
0.03308431248813258 0.0478430243187044 
0.05653783129817761 -0.009387838014595706 
-0.008522198141601642 -0.040097047712974176 
0.016998473249832825 -0.04728663315638584 
0.002760098756612801 0.015998047121557588 
-0.01959653617699888 0.022020597389837818 
-0.05172798027815503 -0.04722585999996154 
0.04770761139454707 -0.006719116237328155 
-0.03936515536816805 0.013505562376107578 
0.04075005284618072 -0.02491135611463294 
0.022389796503021094 -0.04117124127037305 
-0.048468667910408096 0.01475417529736305 
0.01215011974768977 0.02783428740079398 
0.035287407814176504 0.07011349471519358 
0.009437264718227834 -0.01139638230264362 
0.04450218996529377 -0.01779324074458106 
-0.0005101353051805845 -0.04203259330811505 
-0.05184930951657966 0.06860972674886896 
0.049377487908327286 0.03528479000947484 
-0.004236127143654005 -0.03017663875068749 
-0.0355547040827989 -0.020436589031450403 
0.01322912186937946 0.037506799684816565 
0.02758897495512457 -0.0167314376971422 
0.06443034262411462 0.040514251515950464 
0.014238391177145687 0.02471213096828666 
-0.0031171493036478886 -0.02091975509168576 
-0.01055034220633851 0.04304047697594678 
-0.05346743134670069 -0.03730448582106772 
-0.04969950090647217 -0.04676506038881884 
0.05127053531076765 0.03605233825670828 
0.004158346483538269 -0.03951664437153317 
0.006260776845618887 0.0074493725180874975 
-0.033782792319842755 0.00234124163969289 
-0.005436690122640002 0.025207816961380292 
0.024040543030596776 -0.046177192206882746 
-0.008301824432553274 0.026496398720809562 
0.0074607407057527475 0.055203098851906114 
0.027318925639440012 -0.031350953353270074 
-0.04655148754956616 0.028493474477374936 
-0.05137733184413114 0.021582141097215464 
0.06215029788839534 0.020072451960485738 
-0.006646250174870261 0.02860900408445508 
0.0019210460659719608 0.016337366517560188 
0.06286636077540018 -0.003390799326482596 
0.0653988077501743 0.06151066860152362 
-0.03103120615425 -0.04317602301535568 
-0.042558167548589335 -0.04945686222874446 
-0.04327326963682086 0.033679596069097914 
-0.04629752835627243 -0.011887683942661934 
0.05041481827506136 -0.048856562726692525 
0.046350918952359155 -0.016614591787321876 
-0.040627598866608924 0.03522047717963855 
0.023702958481128703 0.05801683270402256 
0.03694751081629308 0.048766775498453624 
-0.019811113836611348 -0.02955317891525219 
0.03840486181544711 0.049030632216042355 
0.0686094560909147 -0.00022669391217675867 
-0.008637882846942816 0.04533115508664331 
-0.01211495980697862 0.06469416777851425 
0.05251058327820341 0.0019650701425459765 
0.03880156871874093 0.04261482560642682 
-0.042338032767576146 0.06107437701943795 
0.0077483021949769654 0.05143231888443429 
-0.015376064008109215 0.060083824122376214 
-0.006147496806413117 -0.050301891575170746 
0.05816051505107687 -0.040324149162108976 
-0.015788739356144964 0.06684348092624579 
0.06328658199854266 0.019797384548117396 
0.02380364516381692 0.004319284839533124 
-0.0188053342744706 -0.010811537173392366 
0.028655945781742895 0.04218756196143708 
0.0437506674444722 0.04694013961656053 
-0.04377088217421396 0.01007296148156345 
-0.04792940626329142 0.016957176490598067 
-0.0002628571760604983 0.059113376143171865 
-0.011079403875047519 -0.03707357554740022 
-0.03747163329808894 0.043351117627244154 
0.022080400122356732 -0.03916731172819197 
-0.04448495595890269 0.03591683624150285 
-0.0460910851409011 0.05099286149799308 
0.03343976906697399 -0.041502080925071544 
-0.044371091669408565 0.07160900034676443 
-0.008325995355616189 -0.005420044152807237 
0.04618604176057295 0.06653228432204882 
0.06796344888835755 0.04236526719766858 
-0.008328373717443199 -0.04139551654105333 
0.04173748865228959 0.0179586581741262 
-0.001933511266625716 0.06163922996934326 
-0.04149254954294707 0.009768927162341913 
-0.05360563368077929 0.006906355488123498 
-0.04799993469876985 -0.036878740691153385 
-0.0403198022908847 0.029455945047806926 
0.03807872502260983 0.02115122918048721 
0.06528016475936711 -0.0048807470485890654 
-0.019553993340674123 0.056795924998290295 
-0.027500815757370456 0.06854772313934353 
-0.0534074479063409 0.06953137002283949 
-0.05004645975961864 0.05955639394533034 
0.01027309356875849 0.0722102796376931 
-0.045911485762259674 0.01749553095016469 
0.06562017663617373 0.013520174706999467 
0.023975593197961016 0.03532809824166701 
0.0020898150583204757 0.02680490643732103 
0.018226148963037977 0.06098954844574504 
-0.04948703718547024 -0.016675062299828673 
0.06333672402673901 0.05938878366908396 
0.0020115648370132885 0.025853677936701236 
-0.02044245520251541 -0.02826427450633849 
0.0031586236465812037 -0.007474298505603222 
0.018235903048893033 -0.041920344167242204 
0.06702224306254882 0.07161087729468325 
0.03186889702017076 0.015181054186983645 
-0.016705779461704772 0.04991274728226129 
0.0305981236003912 -0.031355620103688316 
0.058518014474497185 0.050994748152274005 
0.06338558353296987 0.0388628020561575 
0.02165399731378256 0.0005344781615888392 
