0.04983354248108342 0.034206209481307426 
-0.03110219946113337 -0.045295512095871494 
-0.0022991980818074928 0.02699214164292597 
0.04897303158563595 -0.028965123335700123 
0.018046828084901583 -0.005783718837971073 
0.053763293258177296 0.03402962324765176 
0.03674340228132149 0.004489661598543035 
0.0006082547049588646 -0.021944406795021184 
-0.028512270875220555 0.03212041016871707 
0.037511078086423476 0.04348291211144429 
0.054421757937791373 0.010778499311041105 
0.03303230857545861 0.03616884387193532 
0.03816419863259521 -0.02345115545023372 
0.0031768446899671354 -0.027691326234929283 
0.051162622387978 0.013365042623175939 
-0.01312916706837497 0.01922075463555744 
0.02161179991322064 -0.010059793056222215 
-0.0231066768029067 0.015560121472059426 
0.010461720913917734 0.026692915857149488 
0.010566021500240594 0.035201134914645375 
0.014890696358530223 0.005210349885705932 
0.043333545207654506 -0.003741537314547385 
-0.022336375697891382 -0.03869052813324635 
0.033204538390537865 0.012880343018360843 
0.02918479504911787 -0.02453669728108202 
-0.0251230730707829 -0.043593229858238304 
-0.005150262873547084 0.013171542999142456 
-0.0036841214912205437 -0.002555717691187555 
0.044719803572010136 -0.012839452983160192 
0.007329524768559591 0.03297901027323989 
-0.0010271648185855092 0.011769254412961231 
0.04131501767563604 0.04488545390496883 
-0.023598819708062626 0.04473520318161227 
0.007820750659966343 -0.02433591307502501 
0.0012286321024136417 0.04152124111531604 
0.004466020569221211 -0.014919480578127694 
0.022681083233272746 -0.020422402950370344 
-0.02945089372599971 -0.026790624325814846 
-0.02709823136133705 -0.029711256912791546 
-0.023284637820042742 0.014905371906710348 
-0.017442891089743964 -0.009059192051315937 
0.04184487968004579 0.00045560767556969797 
0.02477055541540379 -0.023186446373559908 
-0.021963670663515702 -0.04165347340797625 
-0.023411332593511813 -0.01405583148791967 
-0.0201133582466625 -0.03642262110268516 
-0.024604978186466925 7.44643278134334e-05 
-0.016651750552545412 -0.01085788863551056 
0.010206861342820837 0.017597892570982612 
-0.028843455136026194 0.03004943820269864 
0.019351919594180964 -0.04000965953623186 
0.04010189901421684 0.03715049012878082 
-0.029048894691312277 -0.02321554677675681 
0.033642899706685866 0.020797210713222273 
-0.019964960386364534 -0.02476257585529144 
-0.006246553987337354 -0.0022895967710714043 
0.01646037157859162 -0.0043038222653043745 
0.008568276237155038 0.025336773828936503 
-0.02978185496380607 -0.01680917358502102 
0.028899945467660063 0.03806204365720453 
0.009098623481177253 0.006070773726138576 
-0.02812087241260453 0.0004568019902234972 
0.008757634340056233 -0.02317897273725923 
-0.013368058711880862 -0.006871013625361904 
-0.033417888941182375 -0.01198824371689098 
-0.015727688569325396 -0.014597978528524558 
-0.023700586899114206 0.03959215564834471 
0.014981145035468452 0.015529716759019485 
0.037633607995233374 0.004367607792274276 
-0.027198903685372817 -0.0003409823483403058 
0.016194552831906774 0.020844312808805276 
0.0035784018298280814 -0.028718018336489824 
-0.010527123425978448 -0.005257683756343793 
0.019396579918431297 0.005862395126666397 
-0.005461893381063689 0.04358124400494844 
0.019261160825427556 -0.024606735571790463 
-0.030267958914008596 -0.030111125486834152 
-0.015924145027835266 -0.022959085692548772 
-0.02201548498091413 -0.014430641064684443 
-0.022922091306307985 0.042372494753925856 
-0.02686984793648782 -0.0006326930594546859 
0.0017083523479670868 0.042908895758806895 
-0.02581974302367526 -0.0054974653993474015 
0.048073509693628676 0.03987042519083456 
0.036810143907547686 -0.017853872040971497 
-0.020609795180360508 0.018650593784724407 
0.044149528279492874 0.0056739128207733604 
0.014255736276726624 -0.018871195544704726 
0.03124315064414897 -0.029470590430262896 
-0.006330713996685693 -0.004887116424383983 
0.010560341148859497 -0.01780967104130495 
-0.02885013409984095 0.011084080338921542 
-0.011378024380409323 0.00694010145191759 
-0.021390140479597128 -0.000820462383312812 
0.011078886715951738 -0.040691014514330597 
-0.003647674106820343 -0.03176385666277274 
-0.029208086637079616 0.044728050455306645 
-0.009331521205898526 0.031206422135079043 
-0.015401886183656876 0.023999424784324073 
0.03300095958214992 0.013694708835330171 
0.0035408986659824174 7.595797860409758e-05 
-0.004522672384488027 0.038460532406796075 
0.04088527293616877 0.043590878305566405 
-0.0243200896824133 0.022076195458057564 
0.04611486175754592 -0.030162778408261485 
-0.02866712448377571 0.025300306456915864 
0.014944840519660451 0.033254773358620274 
-0.023465249458997108 0.025495066125002016 
-0.014716811738260534 -0.026845104120344604 
-0.02144327096168685 0.03433276338724862 
0.026405756085441438 0.00444911800652119 
-0.0009524453862233013 0.03740824859651175 
-0.003561009316284729 0.026803462623791584 
-6.830184526272981e-05 -0.010728264382394586 
0.0024516038953707985 -0.015851974860135072 
0.02685435289582102 -8.604051432452102e-06 
-0.018256428219860465 0.03574863912040616 
-0.0001917283524810714 0.008186191389082373 
0.041245473039444154 0.010418660844821934 
-0.026681608133227785 0.04119239352655691 
0.02166249227946777 -0.016959617260409426 
-0.027070946929917825 0.025690723846697447 
0.021420396199961923 0.005572146142353404 
0.04250671468075341 0.031989953090939695 
-0.0244721535089184 -0.011019565022975453 
-0.01242308336012424 0.023637186677835608 
-0.032416410219258986 0.0045726119780461205 
0.03372936951142969 0.030621369482784044 
-0.0033357231183999345 0.03448040987848045 
-0.02406313339671883 0.031608828947360126 
-0.025805717529716624 -0.00577556376497676 
0.03314469279000227 -0.02558782381287777 
-0.01337899707388258 0.024528415432745237 
0.030201764960888333 0.014981163132819079 
0.028291466322970617 -0.0002578052516309583 
-0.013819317684056177 -0.009874399453331822 
-0.020576494189788946 0.03842642243096773 
0.01742605063408743 -0.00985317277794314 
0.004274825704583087 0.04347645791209494 
-0.020046296194447522 0.003555349800729132 
0.010742509554728873 0.006101240376629841 
-0.03434897474280863 0.03762218514820136 
0.04843104046769632 0.006829419052957314 
0.027829715883492555 0.04054179515065103 
0.02460071867821046 -0.025721942740207702 
0.01847311679154704 0.014548702198851694 
0.0016681187646760535 0.0217958610475337 
0.049100554244265356 0.03860414653286081 
0.003584027279680804 -0.027626211561736058 
0.054315274948822795 0.032850493957781904 
-0.026018859304253076 0.035683063873730415 
0.038467659858307926 0.0075967094153215325 
0.019685799463596016 -0.004994917411523013 
-0.033576822697935195 -0.011385871967562487 
0.03356545517870367 -0.04640773779096552 
-0.002998270937405052 -0.006143619212883622 
0.014499404534058083 0.03607082518669966 
-0.004970361440944149 -0.01455478753555333 
0.030754015043610076 -0.00029490183772146574 
-0.016528518262474232 -0.004435608418301393 
-0.024476912156359484 -0.02498362137022084 
0.007086128401437213 -0.006115382727337648 
0.04622248677723553 -0.012284800201871893 
0.017232566632408026 0.012443303341320686 
-0.03223152968983379 0.019473793209421872 
-0.018605141298932506 0.03868626228723027 
-0.025037680243803446 -0.002681322745796339 
-0.027885485437387558 0.04914388849511782 
0.006437264400350773 0.016214647623341443 
-0.029667132134719592 0.023059656325531308 
-0.017824374020878192 0.035730002556134996 
-0.014477854213891651 -0.022200323831677932 
-0.03354580041458558 -0.00025977879825760434 
0.01214907061288989 -0.03291578536132286 
0.0304319182153912 -0.00260419449099274 
0.012787563876481375 -0.001100941073831168 
0.00022741126423124177 0.00491094271589494 
-0.024469131728767565 -0.024060172567363734 
0.037300674715501705 0.03858902274802755 
-0.0009408322053615097 -0.015666401129655328 
0.01871815299811027 -0.003373267242272384 
-0.03096013448603541 -0.02599506869149183 
0.02842590209977433 0.011167296929247662 
-0.03659467334105935 -0.02520533584393499 
-0.017701032266117054 0.02083672506228912 
-0.031107836113861007 -0.03647726802241286 
0.03387415120761148 -0.029469182418116045 
0.021146272664026716 -0.021589863533306736 
-0.024999977908421588 -0.02228207674208202 
0.031425382462941596 0.03455333648696151 
0.041452193021181 -0.004925059494636891 
0.024536736015466735 -0.02910281649154467 
-0.011158842024378912 0.03361050808323897 
-0.037507477527338004 -0.03497407539013268 
-0.015363957573039448 -0.0395930626820778 
-0.01915415740718793 0.010527036213990516 
0.0007476524761627358 0.034822555768097965 
0.038758941698643724 -0.017425735474828567 
-0.01582832494422201 -0.011376522052074192 
0.016106785217064858 -0.021507331350875646 
0.016169523651647037 -0.0060463845627010855 
0.01346222276790859 0.0003027090445204731 
-0.012150443556329212 0.04646903701533783 
0.028899106925028527 -0.032859604457377414 
0.038553839547499386 0.0008872439929845214 
0.045071819850039524 0.03279655779197612 
0.00400583581384197 -0.03755347294968214 
-0.01166835476208715 0.0036957040214405414 
0.02398004821532822 -0.016373235419579944 
-0.023833412063289962 0.035365099111212286 
0.049990651941199477 0.00430710501594656 
-0.01844906266018659 -0.021453149120632002 
-0.0361749622251374 0.038135195798672146 
-0.02201732196705404 0.009869015745210246 
-0.014949887299465996 0.0061693028831929925 
0.02529947907205151 0.032220464624775555 
-0.020222360589533483 -0.038488896271871104 
-0.021478197445287204 0.033796083121679796 
0.04162750835760261 0.008936254073889168 
0.020144869579961578 0.011534446600112366 
-0.023237992564673682 0.0385612883093719 
0.001572435098875471 -0.00939359845524909 
0.013764160275225064 -0.036019564487730055 
-0.02075449225557248 0.024251492543775184 
-0.027328375727276023 0.012912971774507002 
-0.012458009759886151 -0.006131003009338785 
-0.01112439491315375 -0.015453248997747769 
0.028893242723522165 -0.015594433168544345 
0.01442972715323511 -0.004386506988285865 
0.025424285496044387 0.03813141220348254 
0.025806705832315927 -0.02495390082922551 
-0.03445481146853327 -0.018610469528136157 
0.019762293007858533 -0.04027380186260611 
0.010717202163255314 0.009275840496545125 
-0.006080965091842026 0.029063155946662964 
-0.025857367395576848 -0.03849376897017293 
0.027578644515098158 0.004272321921409368 
0.023811157825824526 0.0016602249498013724 
-0.014402027786822931 0.02894451859064132 
0.03451134873591246 0.022758600051049693 
-0.011721212718779414 0.005320942462337125 
-0.0071221482720805595 -0.037561378653217584 
0.04803342645109554 -0.036061975208493344 
0.05172815660352731 -0.003287855744079065 
-0.017486834916154565 0.00966924931150203 
0.04123103551116951 0.018189857634854048 
0.034535449259885394 0.017257798750379298 
0.026960432992127303 0.02734518136728866 
-0.013086651337637558 -0.004196336830154296 
-0.018857772355785 0.04288819993165349 
0.05080543226483893 -0.03848438397956609 
0.02895068356446045 0.039747301171506814 
-0.017352585025819534 0.0030402206858787936 
0.0470463148393285 -0.038595265286877664 
0.027176165353355267 -0.013349254043280507 
0.04550476403255303 0.04343420439997003 
