-0.015561098861277442 0.056328400972816495 0.029025997712089847 0.01219583588126705 -0.04289375473818774 -0.042955112956818746 -0.055312357824507885 0.04585604859875559 0.012744299372166036 0.025990001298221786 -0.059850493329199395 0.0587877400006794 0.04165195052921866 -0.03603010199055239 -0.03978152703414094 -0.03960661837426359 -0.02455763345825122 0.0029110236372424463 -0.008430428685436473 -0.02623698064003573 0.014037808018402579 -0.04505739794793293 -0.026146530260329898 -0.016710659167256333 -0.005429380095658328 0.03562497972433563 -0.03747555908530318 0.001726569909741825 0.011390102206180698 -0.05660422099129871 0.013383256940708011 -0.04132295171064218 -0.05436961990307895 0.05613314945350829 0.058332183728952935 0.03854724316953847 -0.024477669517973425 -0.050352811075561894 0.02284213976814243 -0.007659586174198909 -0.04714924948105751 -0.000644120532409755 -0.05822733543218273 0.051036953963323486 -0.030204305685581145 0.020324089920581646 -0.023595375706507465 0.002496341223573713 0.005857867880758348 -0.03954848291375571 0.05852730744423528 0.034511273405215176 0.05488297867737579 0.04931890675187688 0.01235199906139726 0.05286854085862474 -0.05156872302992496 -0.03816430469009154 -0.05699358897065084 -0.021997431770016396 -0.013840463831667028 -0.02850942100591154 0.04095335272430869 -0.01787783803470483 -0.0273233026296866 0.005236654233213712 -0.04481912397075183 0.03790596689015505 -0.05323729968631743 0.060798959590130465 0.03411974796934129 -0.03759674641173866 -0.061948027867475886 0.03942041633341397 0.025787715534796248 0.028555095776656 0.034004448905764546 -0.05331192856903012 -0.01756896923202971 -0.04799830180791626 0.045295336117709396 0.015451285863999256 -0.021059998461405115 -0.054708048433575414 -0.023789366206115974 -0.021882959075763295 0.028620673969256622 0.017065391588075084 0.048406332343498254 -0.0036229737290923167 -0.04770089059225127 0.02668742475571593 0.032456056289357556 0.007593674359958448 0.03395963357972443 -0.0006368196101892792 0.002769030357953668 -0.008990099180610082 -0.05935891838317174 -0.049159800797943166 -0.058750437378461 0.016877585844082596 -0.0233460705789838 0.0011292337067322063 0.051066878000403146 -0.03141958942559845 -0.01130039006342359 0.03177827982983061 -0.0340576487657277 -0.05287782655634406 -0.026437934867149245 -0.04221991865775571 0.05373556751658979 0.038481089281692984 0.01668985405427892 0.04625964630815122 0.038090090346430384 -0.03921250190781186 0.04896831781945546 0.004879585633303962 0.03842260342166051 0.04965203599854154 -0.022707997263420647 -0.04881825101469407 -0.033980747020830274 -0.008994873068224657 0.0398784519391521 0.04510262528339384 
-0.06120162178818973 0.001325720489534523 -0.01006523080635055 -0.03497950142103202 -0.04712167666652049 -0.02005422289367777 0.05523320638584544 -0.02173712242130016 0.002784547882184422 0.025422906031385646 -0.0167372776459518 0.05924840809111029 0.05810516431416239 -0.031200369512746958 -0.00037302419132401453 -0.024871336947878395 -0.027003538390484288 -0.05834858945564478 0.013946803701614191 8.28785972192558e-05 -0.05589533745815974 -0.027650548308294588 0.050725437850704866 -0.032451179913058965 -0.04404751707449792 -0.0013176015821918952 0.060912363675814735 -0.03237016010391403 0.02130497289626307 0.033054699413586734 -0.03292019100951435 0.028224929432065542 -0.01639610152318047 0.016640989980081584 0.017149210656741905 0.004580731272218214 -0.05131102403655055 0.04190481960196929 -0.02285258088586212 -0.03963140434572124 -0.057035550732654455 0.011268242558817351 0.02221681453520499 -0.06066628535543219 0.0014981948675338245 -0.034169727604103264 0.018117486151067744 -0.04057078183497029 0.02393674286384122 -0.01442233939964617 0.05428025130453935 -0.04490855705915361 -0.019880082504915658 -0.04830115261293905 0.05343915306734396 0.04767588344988741 -0.03057845642022097 0.019589333356532936 0.03941890920685633 0.006549431748600685 0.0038837783585883917 -0.032046064879463515 -0.051074085786012434 0.049891345084907265 0.050354925679067054 0.016415019768281285 -0.01980711683078066 -0.018451425969695887 0.028253813930561027 0.049667523216390085 0.04868472492386327 0.03528592210646984 0.0175858637413317 -0.05185523948090884 -0.042296021309651266 0.049636788893184215 0.013547731493768565 -0.06133693795580811 -0.049408184166751856 0.02056251276468628 -0.06204127730734947 -0.04216047216261079 0.006434332168607747 0.02369927706108632 0.018696276001629528 -0.03437307126348141 0.026338080124184565 -0.033018756853963833 -0.021804323144028817 0.03057486236108736 0.01849049488537024 0.04373829918918622 0.01954321284827317 0.008440471174644075 -0.050389135863747374 -0.01605010072280416 -0.029524616114489914 -0.031733135000935685 0.05921229703476312 -0.013635691015497707 0.048648862519638014 0.01597662671281784 0.03662694650777545 0.0005809206842150961 0.009978436518910314 -0.000969102588571144 -0.038152088788459444 0.027586683199141752 -0.027622150121041314 -0.05927199409908822 0.01789903697101723 -0.03995247017203849 0.055248894775352275 0.05677683992003768 0.05206923738856667 -0.016610833550413092 -0.06007381959739424 0.05357330638966192 -0.00920031258921808 0.05830026345529116 0.05794099336597404 0.04466682798644437 -0.025493885902473302 -0.014393106383452965 0.0439818477967396 -0.02243990163915356 -0.04086379338725218 0.007203286816891496 
