-0.01576487260234363 0.04477717967422304 0.017245315913946832 0.010968919780519608 -0.030067229539260183 -0.03500828122494016 -0.04000433409899343 0.034353859954101326 0.005531555564981954 0.01272767529043995 -0.044324726631339684 0.0366019308760276 0.031024330809855435 -0.02245775240089599 -0.030412682500850094 -0.02996689776378855 -0.016666841322498 0.0005521453870878782 -0.00925904205054845 -0.022551170046321522 0.008791073039763942 -0.03212013392690382 -0.013923034908041018 -0.013883035915645119 -0.001860313374724174 0.03001409426341332 -0.027931932210822075 0.0014390634864428786 0.008650535843357501 -0.0436935533592581 0.007975857379237965 -0.03467312501456926 -0.042926062764404485 0.04176401238023016 0.03620077440431949 0.028520232965306366 -0.015509075992787311 -0.03215727518764953 0.019686280556129452 -0.006751099738389949 -0.032191800450035536 -0.0012536647874178718 -0.03894653277013782 0.040695672744482415 -0.019444789007472714 0.018353999921053767 -0.016392826259296178 0.002975760121286828 0.0017917327849263475 -0.030816541223903947 0.04513821646187583 0.019331330589879663 0.0413317353801855 0.03173889559866177 0.011411766165795157 0.03725757513418479 -0.036055939468067344 -0.029873140675743717 -0.03791784827675741 -0.020166954794801656 -0.010767281160761834 -0.019876578051280205 0.03113133362471268 -0.011800895284318049 -0.01764677493793831 0.0053484933577515785 -0.03575167098426557 0.024452568170910547 -0.03867146113415805 0.04297213226416468 0.021183579186419946 -0.02359178409915849 -0.04289630592535493 0.026615620638051465 0.013297157931307337 0.022287203988424542 0.027438159501899876 -0.03481839055918761 -0.010666735557388922 -0.03817758690969759 0.03210961964206906 0.005876773298528965 -0.014070104359230192 -0.04355527691034513 -0.015392979816361245 -0.017292756038693746 0.018739710654560742 0.013746131979460549 0.03659087326580328 -0.0020307403938486773 -0.03184259226063558 0.01780529789895534 0.02213091681232474 0.005568144608551324 0.027890789246726257 0.0027341845826219418 -0.002694155696947813 -0.009798598845003004 -0.04422805047411299 -0.03665159458770572 -0.04135702354835485 0.007623830557692748 -0.021947588823882775 -0.001518479954007979 0.03823670710111048 -0.024592266693075314 -0.011930192177569176 0.019794166425582568 -0.020930351784412354 -0.04078644247893138 -0.019612372406980858 -0.034099886694268645 0.03470338772240264 0.028099408722058707 0.013271405052288496 0.032099519593032456 0.022884523466657456 -0.028653615974608724 0.03259151198851737 -0.0008376483518413306 0.02829181847849499 0.03224403821611264 -0.017159416867669548 -0.038553527175417907 -0.022480242086910823 -0.009037710246791213 0.027692231662378736 0.027583474251929526 -0.04727088894420069 -0.002406410410622775 -0.006413422196686892 -0.022256310530472716 -0.036117311031007654 -0.016595444000018788 0.038245766261441334 -0.01443527051722962 -0.0024376530219676266 0.018413918414177385 -0.016981932838058596 0.04108706780450233 0.039543974985842334 -0.025608198823797165 -0.0019416387902749421 -0.0225788119325438 -0.016594653286589385 -0.04280459761135567 0.007010101040316154 -0.004964077613983488 -0.036605582184649196 -0.024100227616966473 0.0321530006761854 -0.02441078710234552 -0.03119556552955819 0.0006706546732331732 0.0470687005040423 -0.022206668957695963 0.010693103479278942 0.02443520403153612 -0.023688448484805488 0.020581199595597035 -0.008691080859158184 0.012008642248589614 0.012165873892772607 0.0012881416538596123 -0.037889645712734205 0.025251220405556125 -0.015224900260059033 -0.03270684823432679 -0.04234840067282892 0.005687697543185537 0.011754114773679873 -0.04007617802803108 0.001404202130640367 -0.020750746514773395 0.012435866847585486 -0.028911178751947923 0.016012379350678545 -0.007100752422964326 0.033443560950483835 -0.03034207135586607 -0.014010740888709414 -0.0308976721969395 0.03543329947253469 0.036301942810680714 -0.023426004846154206 0.01823470734679047 0.03040739653924836 0.006716681129573115 0.0051669392311834315 -0.027188213108840138 -0.03608511720455552 0.037477118455554695 0.03147319310194469 0.015930797369476418 -0.009819095570469798 -0.014326261244605917 0.015832761116141097 0.03595809417041375 0.03533345537950004 0.026500460961946602 0.012765612444333257 -0.03695945545100122 -0.034768036395481414 0.038032305052373275 0.00853389474307815 -0.04759059506685684 -0.03119157041473673 0.013915751719078627 -0.04230409925463092 -0.03349937140020338 0.002899277890391981 0.019223098819303175 0.009543107508989464 -0.025243505006812404 0.0180493110632223 -0.027249909849041014 -0.010964194125848696 0.01801337028694235 0.011345216655759681 0.028845856446088666 0.009823295992785006 0.006795774216899647 -0.032219375664888646 -0.014174787789365163 -0.02185620838896915 -0.02186304283824392 0.04320960328884567 -0.008329429039178673 0.03449127247130465 0.0067114750418084314 0.028109520406374915 0.0026060755029940074 0.010606597801221645 -0.002087964513140762 -0.030058373658247425 0.023916991484818316 -0.020303140292591573 -0.04247674452087505 0.009624467076927755 -0.03154520254674128 0.03806713344268948 0.04394817657034364 0.03940909739185268 -0.012079698717054714 -0.043593941498478755 0.03481784414041524 -0.008883190676238991 0.037356041203811204 0.04114939192720659 0.026435933513644264 -0.014851955598363272 -0.01511999509317206 0.030503075973337134 -0.01278394139314286 -0.02818974054389529 -0.0006285667682757228 
0.04062295037456968 0.016357370753996053 0.004786781337249288 -0.031098168692191726 0.011481702906989539 0.04569111021297984 -0.029349893436246777 0.0021873275857789793 0.029777838208527044 0.022137862277981545 0.020780141574805525 0.01867069542858519 -0.009006267014243306 -0.017135362817758935 0.03032563602376577 0.025490273382587508 0.03408211643384547 0.03393734662931279 0.0005926726836375784 -0.0005542212959910783 0.026945226309771992 0.016334453200134953 0.017364429146060897 0.027814786206058182 0.03715712446874127 -0.014785834312774224 -0.011989549689589958 -0.03616157361026061 0.01039263198335063 -0.0416912153638323 -0.003759270400999076 0.00497852079580034 -0.022297106911721508 0.00917592267064661 -0.04303874257739889 -0.04014678191045514 0.030615833642143715 -0.013667145370561067 -0.033998467743702146 -0.0004855134900904106 0.02266750527649894 -0.02221353452778465 0.013308166484070084 -0.0368961888066817 -0.040881095437844045 0.0023697474171914283 0.001588335716740873 0.011063448344182892 0.0198049548938684 0.03855368671638888 0.004012970067232518 -0.014258824876003802 0.02444924672721501 -0.018747311616059397 -0.006169432112261758 -0.037776011615156084 -0.04062369640090341 0.04028819804579906 0.02786863259077251 0.017805814168198493 -0.007778231454212916 -0.031035674198434043 -0.029048054163590627 -0.0229280523082533 0.0021404468022502617 0.018060441209470826 0.010784632278717239 -0.019106056318850425 0.0424934317422743 0.018708821038469846 0.004968793711177946 0.010957347281787294 -0.007817045082278956 -0.02127413262216758 -0.014897893008999755 0.024759749869635125 -0.04415079650557661 -0.03432029696689239 -0.04127829964574738 -0.04382151932847878 0.029115000709115397 0.016287889316412174 -0.004156572274290537 -0.033518543764138 0.00239657705438 -0.004707282385718932 -0.02601636984558658 -0.004340914126527156 -0.005864671027166269 0.009706257156695578 0.013142480145471376 -0.042801227508244805 -0.012374332600727444 0.009331952838975985 0.0022996917936944266 0.0320654831343811 0.01001807229550336 -0.031704427779145755 -0.03997274196996408 0.01429200639775262 -0.04161383715289466 0.00560742814171398 0.03999864980333982 0.0038613846350906227 -0.005667718255202149 0.009433893263893276 -0.0039906036800031845 0.0011403243692551877 0.03859923412392332 -0.012997407023361196 0.04220181973794499 0.03411572485263404 -0.028292781690123166 -0.03780845836262005 -0.034651066719494354 -0.040743271669401226 -0.03859955271714505 0.015634331046676064 -0.035405592473421614 -0.0195982711253495 0.03231598890125145 -0.04516120936138399 0.028869497402981517 -0.017436003656643172 -0.035207480202667736 0.015365312452227378 0.008573607096130389 0.034348973626136106 0.019066832209714814 0.023622125427561386 -0.02108173357916753 -0.025258797671504588 0.020047516830459616 0.028496309843150523 0.045009903657718627 -0.008545027772662878 -0.014378220923925227 0.0257336139699507 -0.015477353778183819 0.03608219380280372 0.031863548457268305 -0.010301425083309066 0.02517015094714196 0.02280073973246436 -0.0324314271885659 0.036125339348395166 -0.00043083221291691497 0.030732216654844997 -0.014758076316361972 0.03743151593634452 -0.013210404630492886 -0.040743929220262265 0.03715360662372852 -0.038258246702557085 -0.012073721619827437 0.03946405139175738 0.039215628386072336 0.006381822917503796 0.013683648786520073 -0.005832359231705714 -0.019302463182996894 -0.01458879478026606 0.018778451784257064 0.022819766707599796 0.022466295653007697 0.022505706095438564 -0.03793503318312325 -0.004473183574583601 -0.03924886983743759 0.001140216969879696 -0.007976509959283569 0.03373935898723211 -0.015789113027253818 -0.031845377098793044 -0.02936990894728486 0.023832730325664225 0.010013514690254044 -0.03625852160346218 -0.035575533645279676 0.01802708640780417 -0.03634629783807626 0.02686137904032272 0.019570734476997326 -0.03890429572644946 -0.03879944990514575 0.04167675185039212 -0.007798724945074762 -0.009298299295822007 0.026313326506075648 0.040261361570036625 0.04584716572685518 0.024891322216835134 -0.01319077620814466 -0.03839902455974384 0.024522601454186468 0.003170199473677885 -0.008119502106586188 0.03898341116122152 -0.03525926696562771 0.0010487323271133624 -0.04188224241275993 -0.001955006662539113 -0.04181770253489295 -0.030552400150384008 -0.0311418001976627 0.01509552948136216 0.02315148937733531 0.006122889505144195 0.04289676275666387 -0.01420903802530852 -0.015607627835454487 0.031656729800647196 -0.028596731770993974 0.03866129433300693 -0.04453024770718566 0.04189256950328409 -0.04052793354036925 0.03142652866498637 0.004920206644268925 0.04422023505915264 -0.040864710671721004 0.004972046764059098 0.0434763558709404 -0.0005533012682956588 0.008752197729199543 0.016370452408023047 -0.0045347015170048134 0.013702839959909965 0.008372950826917755 0.03558703963792513 -0.0375134260202097 -0.021355331070283298 0.04234219064704513 0.03461062791419795 -0.005575336612577512 0.00983827220661752 -0.017942477132340637 -0.025955252186798124 -0.005525687171054179 -0.01139700338559957 0.006052031062500848 -0.03663697243776661 0.0463202303929025 0.046521429227626476 0.015675270196588747 0.005263488820556239 -0.015088840991929333 0.028351234005765696 0.015196033853940184 -0.03290118705567477 0.04109991242075428 0.02889030371552228 0.037989124908932345 0.024512177617169294 0.012278319460465833 -0.005670345632233554 
